/*
 * Filter Coefficients (C Source) generated by the Filter Design and Analysis Tool
 * Generated by MATLAB(R) 9.1 and the Signal Processing Toolbox 7.3.
 * Generated on: 19-Jun-2017 18:53:57
 */

/*
 * FDATOOL: Bandpass filter using Window method with Hanning, fc2 = 8 kHz
 * Discrete-Time FIR Filter (real)
 * -------------------------------
 * Filter Structure  : Direct-Form FIR
 * Filter Length     : 257
 * Stable            : Yes
 * Linear Phase      : Yes (Type 1)
 */

const double B1Hz[TAPS] = {
  0.0001425241969902,-0.0001546221051321,-0.0001249960461794,0.0001737738825225,
  8.036754165615e-05,-0.0002109948890011,-5.176709284131e-05, 0.000221253785032,
  -5.92249838093e-06,-0.0002486513004316,4.635216940788e-05,0.0002436884578012,
  -0.0001180595699864,-0.0002543232531627,0.0001683183761481,0.0002246265825431,
  -0.000250608791959,-0.0002093461709132,0.0003029128656685,0.0001447687925518,
  -0.0003854852941172,-9.57678939498e-05,0.0004247100964017,-1.009125919774e-05,
  -0.0004900332837049,9.439934837927e-05,0.0004947853826345,-0.0002391971320285,
  -0.0005207077910868,0.0003495128025248,0.0004675000557683,-0.0005182644033999,
  -0.0004328504295437,0.0006317427911364,0.0003028985414864,-0.0007957852476907,
  -0.0001950899656683,0.0008769634234359,-1.773244619019e-05,-0.0009970411945946,
   0.000194967437362, 0.001003175460029,-0.0004771981872445,-0.001036936549912,
  0.0006983072269794,0.0009274342426166,-0.001013388434503,-0.0008403852573363,
   0.001230003087868,0.0005887518302909,-0.001520172108124,-0.0003665162469077,
   0.001666137766796,-2.782218798952e-05,-0.001860646531295,0.0003689358564006,
   0.001863306403654,-0.0008721192538888,-0.001892421469648, 0.001279430015506,
   0.001688801778181,-0.001820958713461,-0.001501445975681, 0.002207212872685,
   0.001056485629701,-0.002686075928025,-0.0006380640144053, 0.002940015390465,
  -3.900837018787e-05,-0.003239558871951, 0.000652737996219, 0.003244702638289,
  -0.001498038459813,-0.003254687448711, 0.002214989961013, 0.002913803786131,
  -0.003109105821065,  -0.0025562400707, 0.003785579629866, 0.001817344733126,
  -0.004564098392982,-0.001071377659115, 0.005021050492134,-4.979185949066e-05,
  -0.005496197490667, 0.001129049563939, 0.005545559839527,-0.002534950111677,
  -0.005536245068553, 0.003807964317335, 0.005013479495449,-0.005317037390916,
  -0.004378959944866, 0.006564131078039, 0.003176277943356, -0.00792141881199,
  -0.001847345788719, 0.008859074046656,-5.872744099255e-05,-0.009757029717528,
   0.002057271021965,  0.01006135303224,-0.004589826024042, -0.01016332095275,
   0.007130535490333,  0.00948975080271, -0.01011182714631,-0.008440442806619,
    0.01297270100582, 0.006416622714404, -0.01614077566759, -0.00380371223234,
    0.01902998471826,-6.461753326765e-05, -0.02207071652112, 0.004907929032275,
    0.02466475497669, -0.01164033536249, -0.02725464353541,  0.02049223259967,
    0.02924401616622, -0.03363331670399, -0.03109687716701,  0.05488070333963,
     0.0322317839605,  -0.1008601879161, -0.03314147382044,   0.3164843387899,
      0.533315034834,   0.3164843387899, -0.03314147382044,  -0.1008601879161,
     0.0322317839605,  0.05488070333963, -0.03109687716701, -0.03363331670399,
    0.02924401616622,  0.02049223259967, -0.02725464353541, -0.01164033536249,
    0.02466475497669, 0.004907929032275, -0.02207071652112,-6.461753326765e-05,
    0.01902998471826, -0.00380371223234, -0.01614077566759, 0.006416622714404,
    0.01297270100582,-0.008440442806619, -0.01011182714631,  0.00948975080271,
   0.007130535490333, -0.01016332095275,-0.004589826024042,  0.01006135303224,
   0.002057271021965,-0.009757029717528,-5.872744099255e-05, 0.008859074046656,
  -0.001847345788719, -0.00792141881199, 0.003176277943356, 0.006564131078039,
  -0.004378959944866,-0.005317037390916, 0.005013479495449, 0.003807964317335,
  -0.005536245068553,-0.002534950111677, 0.005545559839527, 0.001129049563939,
  -0.005496197490667,-4.979185949066e-05, 0.005021050492134,-0.001071377659115,
  -0.004564098392982, 0.001817344733126, 0.003785579629866,  -0.0025562400707,
  -0.003109105821065, 0.002913803786131, 0.002214989961013,-0.003254687448711,
  -0.001498038459813, 0.003244702638289, 0.000652737996219,-0.003239558871951,
  -3.900837018787e-05, 0.002940015390465,-0.0006380640144053,-0.002686075928025,
   0.001056485629701, 0.002207212872685,-0.001501445975681,-0.001820958713461,
   0.001688801778181, 0.001279430015506,-0.001892421469648,-0.0008721192538888,
   0.001863306403654,0.0003689358564006,-0.001860646531295,-2.782218798952e-05,
   0.001666137766796,-0.0003665162469077,-0.001520172108124,0.0005887518302909,
   0.001230003087868,-0.0008403852573363,-0.001013388434503,0.0009274342426166,
  0.0006983072269794,-0.001036936549912,-0.0004771981872445, 0.001003175460029,
   0.000194967437362,-0.0009970411945946,-1.773244619019e-05,0.0008769634234359,
  -0.0001950899656683,-0.0007957852476907,0.0003028985414864,0.0006317427911364,
  -0.0004328504295437,-0.0005182644033999,0.0004675000557683,0.0003495128025248,
  -0.0005207077910868,-0.0002391971320285,0.0004947853826345,9.439934837927e-05,
  -0.0004900332837049,-1.009125919774e-05,0.0004247100964017,-9.57678939498e-05,
  -0.0003854852941172,0.0001447687925518,0.0003029128656685,-0.0002093461709132,
  -0.000250608791959,0.0002246265825431,0.0001683183761481,-0.0002543232531627,
  -0.0001180595699864,0.0002436884578012,4.635216940788e-05,-0.0002486513004316,
  -5.92249838093e-06, 0.000221253785032,-5.176709284131e-05,-0.0002109948890011,
  8.036754165615e-05,0.0001737738825225,-0.0001249960461794,-0.0001546221051321,
  0.0001425241969902
};
