/*
 * Filter Coefficients (C Source) generated by the Filter Design and Analysis Tool
 * Generated by MATLAB(R) 9.1 and the Signal Processing Toolbox 7.3.
 * Generated on: 19-Jun-2017 18:54:32
 */

/*
 * Discrete-Time FIR Filter (real)
 * -------------------------------
 * Filter Structure  : Direct-Form FIR
 * Filter Length     : 257
 * Stable            : Yes
 * Linear Phase      : Yes (Type 1)
 * Bandpass Window method using Hanning, fc2 = 8 kHz
 */

const float B10Hz[TAPS] = {
  9.516631247936e-05,-0.0002021047411132,-0.0001727313903084,0.0001256515545689,
  3.165103918116e-05,-0.0002604910502106,-0.0001021563957147,0.0001698210971716,
  -5.861609961755e-05, -0.00030276915046,-9.291389142537e-06,0.0001863483783732,
  -0.0001773170151447,-0.0003156311856765,0.0001048648118003,0.0001588312574579,
  -0.0003189589264745,-0.0002803469468878,0.0002291621112069,6.804423485337e-05,
  -0.000465372816332,-0.0001788740404216,0.0003382664585568,-0.0001001203121181,
  -0.0005837930558952,-3.111713709067e-06,0.0003933667715339,-0.0003447822213332,
  -0.0006305405666718,0.0002354308739761,0.0003489597215914,-0.0006415085876945,
  -0.0005608008988528,0.0004990762335482,0.0001652468320457,-0.0009386193362416,
  -0.0003430278483348,0.0007238677366261,-0.0001763061678806,-0.001161202033167,
  2.536290795201e-05,0.0008279917040527, -0.00065830375921,-0.001223948524716,
  0.0005055596005329,0.0007287053165831,-0.001218414048898,-0.001051546024925,
   0.001012848482534,0.0003652392283378,-0.001750265654132,-0.0006028872658547,
   0.001423533256316,-0.000277121156997,-0.002116700631155,0.0001065340595217,
   0.001594438268898,-0.001147954457303,-0.002175063653847,0.0009904186399466,
   0.001393094698227,-0.002123811731679,-0.001811035034393, 0.001891253133908,
  0.0007336133593707,-0.003016147960414,-0.0009746928405646, 0.002597006133584,
  -0.000389111077497,-0.003596763996817,0.0002892336695452, 0.002874779109508,
  -0.001875163816889,-0.003638652964452, 0.001825018446265, 0.002517338972497,
  -0.003512762786527, -0.00296631496405, 0.003369778029882, 0.001394953869222,
  -0.004993506687484,-0.001506649238753, 0.004580269872391,-0.0004972440738598,
  -0.005950288308994,0.0006697319772658,  0.00508085322253, -0.00300634111534,
  -0.006013670457779, 0.003325960793309, 0.004526094376604,-0.005810979557643,
  -0.004878111843097, 0.006060980389974, 0.002667653906713,-0.008436256151754,
   -0.00236638440774, 0.008336463763325,-0.0005869567771816, -0.01029084080374,
   0.001520381196814, 0.009521092450428,-0.005135828814924, -0.01071392900707,
   0.006577985041586,  0.00893374676502, -0.01067356996605,-0.009005430915073,
    0.01240679401891, 0.005846854094543, -0.01671602453957,-0.004380435135314,
    0.01845310023187,-0.0006461414876282, -0.02265704566912, 0.004322363963822,
    0.02407931484562, -0.01223168435469, -0.02784945430881,  0.01990112245535,
    0.02865246158364, -0.03423306537672, -0.03169742817157,   0.0542887341041,
    0.03163656130579,  -0.1014706994159, -0.03374492157522,   0.3159192672467,
     0.5327738353582,   0.3159192672467, -0.03374492157522,  -0.1014706994159,
    0.03163656130579,   0.0542887341041, -0.03169742817157, -0.03423306537672,
    0.02865246158364,  0.01990112245535, -0.02784945430881, -0.01223168435469,
    0.02407931484562, 0.004322363963822, -0.02265704566912,-0.0006461414876282,
    0.01845310023187,-0.004380435135314, -0.01671602453957, 0.005846854094543,
    0.01240679401891,-0.009005430915073, -0.01067356996605,  0.00893374676502,
   0.006577985041586, -0.01071392900707,-0.005135828814924, 0.009521092450428,
   0.001520381196814, -0.01029084080374,-0.0005869567771816, 0.008336463763325,
   -0.00236638440774,-0.008436256151754, 0.002667653906713, 0.006060980389974,
  -0.004878111843097,-0.005810979557643, 0.004526094376604, 0.003325960793309,
  -0.006013670457779, -0.00300634111534,  0.00508085322253,0.0006697319772658,
  -0.005950288308994,-0.0004972440738598, 0.004580269872391,-0.001506649238753,
  -0.004993506687484, 0.001394953869222, 0.003369778029882, -0.00296631496405,
  -0.003512762786527, 0.002517338972497, 0.001825018446265,-0.003638652964452,
  -0.001875163816889, 0.002874779109508,0.0002892336695452,-0.003596763996817,
  -0.000389111077497, 0.002597006133584,-0.0009746928405646,-0.003016147960414,
  0.0007336133593707, 0.001891253133908,-0.001811035034393,-0.002123811731679,
   0.001393094698227,0.0009904186399466,-0.002175063653847,-0.001147954457303,
   0.001594438268898,0.0001065340595217,-0.002116700631155,-0.000277121156997,
   0.001423533256316,-0.0006028872658547,-0.001750265654132,0.0003652392283378,
   0.001012848482534,-0.001051546024925,-0.001218414048898,0.0007287053165831,
  0.0005055596005329,-0.001223948524716, -0.00065830375921,0.0008279917040527,
  2.536290795201e-05,-0.001161202033167,-0.0001763061678806,0.0007238677366261,
  -0.0003430278483348,-0.0009386193362416,0.0001652468320457,0.0004990762335482,
  -0.0005608008988528,-0.0006415085876945,0.0003489597215914,0.0002354308739761,
  -0.0006305405666718,-0.0003447822213332,0.0003933667715339,-3.111713709067e-06,
  -0.0005837930558952,-0.0001001203121181,0.0003382664585568,-0.0001788740404216,
  -0.000465372816332,6.804423485337e-05,0.0002291621112069,-0.0002803469468878,
  -0.0003189589264745,0.0001588312574579,0.0001048648118003,-0.0003156311856765,
  -0.0001773170151447,0.0001863483783732,-9.291389142537e-06, -0.00030276915046,
  -5.861609961755e-05,0.0001698210971716,-0.0001021563957147,-0.0002604910502106,
  3.165103918116e-05,0.0001256515545689,-0.0001727313903084,-0.0002021047411132,
  9.516631247936e-05
};
