/*
 * Filter Coefficients (C Source) generated by the Filter Design and Analysis Tool
 * Generated by MATLAB(R) 9.1 and the Signal Processing Toolbox 7.3.
 * Generated on: 19-Jun-2017 18:51:01
 */

/*
 * Discrete-Time FIR Filter (real)
 * -------------------------------
 * Filter Structure  : Direct-Form FIR
 * Filter Length     : 257
 * Stable            : Yes
 * Linear Phase      : Yes (Type 1)
 * Bandpass Window method using Hanning, fc2 = 8 kHz
 */

const float B0_1Hz[TAPS] = {
  0.0001473224767826,-0.0001498124427906,-0.0001201617474998, 0.000178646649952,
  8.529939653514e-05,-0.0002059853632357,-4.666803727442e-05,0.0002264576433104,
  -5.92305468232e-07,-0.0002431783071099,5.197864598794e-05,0.0002494855505387,
  -0.0001120700797746,-0.0002481277783155,0.0001747298656058,0.0002312735133438,
  -0.0002437054336044,-0.0002021763444389, 0.000310359508779,0.0001525141867112,
  -0.0003774224656411,-8.738141347676e-05,0.0004334323183931,-1.00919605403e-06,
  -0.0004805768676601, 0.000104232979263,0.0005050117175132,-0.0002285530552184,
  -0.0005096375249535,0.0003610102484924,0.0004794450191313,-0.000505848234899,
  -0.0004199620463358,0.0006451050612282,0.0003167605151804, -0.00078140447529,
  -0.0001801970366045,0.0008923742028176,-1.773330316133e-06,-0.0009805229656649,
   0.000212031990474, 0.001020799528208,-0.0004589821370094,-0.001018129451057,
  0.0007176899335246,0.0009474159075317,-0.000992777985643,-0.0008191606860222,
   0.001251828978374,0.0006112133319241,-0.001497053894435,-0.0003427693215378,
   0.001690509567098,-2.782303415845e-06,-0.001834932696737, 0.000395285841448,
   0.001890303755317,-0.0008444277265435,-0.001864050587905, 0.001308439515519,
   0.001718480384601,-0.001790569005247,-0.001470383380878, 0.002238914264611,
     0.0010888762765,-0.002652969331103,-0.0006043015140324, 0.002974417220507,
  -3.900898482548e-06,-0.003203745105884,0.0006891829699948, 0.003281789773545,
  -0.001460236461724,-0.003216204585781, 0.002254075619625, 0.002953537338204,
   -0.00306865957967,-0.002515153692485, 0.003827241307149, 0.001859661697305,
  -0.004521086671838,-0.001027779241386, 0.005065202093588,-4.979207643153e-06,
  -0.005450727395549, 0.001175044933954, 0.005592095038131,-0.002487754920128,
  -0.005488451092025, 0.003856220690278,   0.0050622725149,-0.005267598815045,
  -0.004329002101684, 0.006614494594928, 0.003227183874103,-0.007869902226407,
  -0.001795406872304,  0.00891137582647,-5.872721867943e-06,-0.009703626340176,
   0.002110988900271,  0.01011541180162, -0.00453520613566,  -0.0101082467952,
   0.007185814802679, 0.009545375262854, -0.01005564540269,-0.008383937140189,
    0.01302931279939, 0.006473614037665, -0.01608325486239,-0.003746036368555,
    0.01908769233058,-6.461697297299e-06, -0.02201209798805, 0.004966490092976,
     0.0247233171573, -0.01158121056871, -0.02719518525649,  0.02055135565169,
    0.02930318939436, -0.03357337186999, -0.03103685083319,  0.05493993533111,
    0.03229132389618,  -0.1007992190852, -0.03308116090873,   0.3165410756979,
     0.5333695468272,   0.3165410756979, -0.03308116090873,  -0.1007992190852,
    0.03229132389618,  0.05493993533111, -0.03103685083319, -0.03357337186999,
    0.02930318939436,  0.02055135565169, -0.02719518525649, -0.01158121056871,
     0.0247233171573, 0.004966490092976, -0.02201209798805,-6.461697297299e-06,
    0.01908769233058,-0.003746036368555, -0.01608325486239, 0.006473614037665,
    0.01302931279939,-0.008383937140189, -0.01005564540269, 0.009545375262854,
   0.007185814802679,  -0.0101082467952, -0.00453520613566,  0.01011541180162,
   0.002110988900271,-0.009703626340176,-5.872721867943e-06,  0.00891137582647,
  -0.001795406872304,-0.007869902226407, 0.003227183874103, 0.006614494594928,
  -0.004329002101684,-0.005267598815045,   0.0050622725149, 0.003856220690278,
  -0.005488451092025,-0.002487754920128, 0.005592095038131, 0.001175044933954,
  -0.005450727395549,-4.979207643153e-06, 0.005065202093588,-0.001027779241386,
  -0.004521086671838, 0.001859661697305, 0.003827241307149,-0.002515153692485,
   -0.00306865957967, 0.002953537338204, 0.002254075619625,-0.003216204585781,
  -0.001460236461724, 0.003281789773545,0.0006891829699948,-0.003203745105884,
  -3.900898482548e-06, 0.002974417220507,-0.0006043015140324,-0.002652969331103,
     0.0010888762765, 0.002238914264611,-0.001470383380878,-0.001790569005247,
   0.001718480384601, 0.001308439515519,-0.001864050587905,-0.0008444277265435,
   0.001890303755317, 0.000395285841448,-0.001834932696737,-2.782303415845e-06,
   0.001690509567098,-0.0003427693215378,-0.001497053894435,0.0006112133319241,
   0.001251828978374,-0.0008191606860222,-0.000992777985643,0.0009474159075317,
  0.0007176899335246,-0.001018129451057,-0.0004589821370094, 0.001020799528208,
   0.000212031990474,-0.0009805229656649,-1.773330316133e-06,0.0008923742028176,
  -0.0001801970366045, -0.00078140447529,0.0003167605151804,0.0006451050612282,
  -0.0004199620463358,-0.000505848234899,0.0004794450191313,0.0003610102484924,
  -0.0005096375249535,-0.0002285530552184,0.0005050117175132, 0.000104232979263,
  -0.0004805768676601,-1.00919605403e-06,0.0004334323183931,-8.738141347676e-05,
  -0.0003774224656411,0.0001525141867112, 0.000310359508779,-0.0002021763444389,
  -0.0002437054336044,0.0002312735133438,0.0001747298656058,-0.0002481277783155,
  -0.0001120700797746,0.0002494855505387,5.197864598794e-05,-0.0002431783071099,
  -5.92305468232e-07,0.0002264576433104,-4.666803727442e-05,-0.0002059853632357,
  8.529939653514e-05, 0.000178646649952,-0.0001201617474998,-0.0001498124427906,
  0.0001473224767826
};
